-0.45895265281418018421533133732737042009830474853516,-0.62467837946947457616886367759434506297111511230469,1.7033091706252856400993778152042068541049957275391,0.085225291667194016942410428328003035858273506164551,-0.14908074652541469795608009007992222905158996582031,0.13096987683151087300537085411633597686886787414551,0.12361294870501876586033063176728319376707077026367,2.110257583730341224281801260076463222503662109375,0.26884963291307634181137586892873514443635940551758,-0.27838950618128754932456558890407904982566833496094,0.94018349813124180158752096758689731359481811523438,0.048420683905938358138065780167380580678582191467285,-0.80042526275560899051697560935281217098236083984375,0.31612533460516856198552204659790731966495513916016,-0.83866417428560369184964429223327897489070892333984,0.20910491469778569317838901042705401778221130371094,0.12230794511154452486323407356394454836845397949219,-0.40224664837319584753672074839414563030004501342773,0.058001146879015932911194397547660628333687782287598,0.12460952412590703408667991425318177789449691772461,-0.71073776269476796052515510382363572716712951660156,-1.5406043457871647639478851488092914223670959472656,-0.5162573595043777885393865290097892284393310546875,-0.099402761466494696240836503875470953062176704406738,2.571082969257727057765805511735379695892333984375,0.23626172450983046191552716663863975554704666137695,0.1897042285040843323518089391654939390718936920166,-1.5845855214238200314724736017524264752864837646484,0.035281348560791181423468287903233431279659271240234,-1.8850621715774005249244282822473905980587005615234,-0.38956130544291123207756299962056800723075866699219,-1.6249286506595916890205444360617548227310180664062,3.2408176501463521468338058184599503874778747558594,0.14880544000762538359161624157422920688986778259277,2.3456561173011545307076630706433206796646118164062,0.1474002895639245080960932909874827601015567779541,-0.041525447702869047739149266362801427021622657775879,1.7593337577611367628094285464612767100334167480469,-0.01107374677054938881537449191228006384335458278656,-1.0369466557134312534316222809138707816600799560547,-1.3062752294680122222558793509961105883121490478516,2.4821773306223176014384534937562420964241027832031,-3.1479853188813220477015875076176598668098449707031,0.26429055385711558434636003767082002013921737670898,-2.24573346182995692288386635482311248779296875,-0.04411726432104735862171907001538784243166446685791,0.093762832811638913144136608934786636382341384887695,-1.1029296561310781843445738559239543974399566650391,0.27941922267923441358661307276634033769369125366211,2.1718991486462346784946930711157619953155517578125,-2.3637603666341200359113372542196884751319885253906,0.40516479088692120003045715748157817870378494262695,0.43603587741417948464572873490396887063980102539062,0.070826825543335983348391948766220593824982643127441,0.32607696508061578821724424415151588618755340576172,0.15630292200118209300363503189146285876631736755371,0.10281820584090642367591783568059327080845832824707,0.28745953497381165897550658883119467645883560180664,0.2576185266539869900270787184126675128936767578125,0.45388427248584406470399699173867702484130859375,0.13441234509378363615184071022667922079563140869141,0.46118698722807627277120445796754211187362670898438,0.20120064604149170972569038440269650891423225402832,0.11544914050804895577773123704901081509888172149658,1.6793228570296501178660264486097730696201324462891,-0.065629254781746332314540381958067882806062698364258,0.055313093865243551094934559841931331902742385864258,-0.61892805106373605106284685462014749646186828613281,0.1230451014986721630650734482514963019639253616333,-0.13066697396697846134117071414948441088199615478516,-2.8071622495463413038407907151849940419197082519531,0.7258902664037503171812204527668654918670654296875,1.4410382649559618783996484125964343547821044921875,0.30668924455378998583654492904315702617168426513672,-0.81717854710846826726822200726019218564033508300781,0.1211701857412094962551663002159330062568187713623,0.14289871746078575132088417376508004963397979736328,-0.54538362453174327182381375678232870995998382568359,0.093101836049964747932250475059845484793186187744141,1.3850212306943359141797600386780686676502227783203,1.2007748515418892321093835562351159751415252685547,1.9380122039995173466309097420889884233474731445312,-2.8837552535563850675259800482308492064476013183594,0.0096976572247118881381355848247949325013905763626099,-2.5949874830687962301567495160270482301712036132812,-0.068001590143158055501437786460883216932415962219238,0.19140045820623940997506906569469720125198364257812,-1.2094578510262925519214149971958249807357788085938,0.21662612111436954642762486855644965544342994689941,-0.20801954846912790175750274102028924971818923950195,0.83796308835844734996811666860594414174556732177734,-1.2333880382124673413812843136838637292385101318359,0.97106605574887905341086025146069005131721496582031,0.099810425642971462023567141841340344399213790893555,-1.9843005274290757000699159107170999050140380859375,0.13489393026917281814824889352166792377829551696777,0.085968933850466167090331737199448980391025543212891,-1.5339678607516999964133219691575504839420318603516,-0.00048479175518551691822372040618915889353957027196884,0.47670532656620323574969688706914894282817840576172,-1.6724250954758064224847657897043973207473754882812,-0.69982077652570273684773383138235658407211303710938,-1.4806793290183735134490916607319377362728118896484,0.33195783967613717857503274899499956518411636352539,-0.12243759932991848948802271479507908225059509277344,0.13197148437771136220142409456457244232296943664551,0.28803785930871261822261431007063947618007659912109,0.71106496426512744157832912605954334139823913574219,0.2739057901311969800417500664480030536651611328125,-0.37612098304742014320822818262968212366104125976562,1.3083359460147954145270432491088286042213439941406,1.4176673164297630691521590051706880331039428710938,-0.13475581487547455550313202365941833704710006713867,0.11138640557451726098570077283511636778712272644043,3.4197184587321576287877178401686251163482666015625,-0.015864490415110347326654860466987884137779474258423,0.20807869807050738408804591017542406916618347167969,0.3102798721124894743006450426037190482020378112793,0.24706702775966282725761402616626583039760589599609,-1.4323195229679248630105803385959006845951080322266,-1.6407879703416690109207820569281466305255889892578,2.0032429574359063018107462994521483778953552246094,0.007123988829210374344735878793244410189799964427948,-0.0087999349466302972944120597276196349412202835083008,-0.25082657789494811062525059242034330964088439941406,0.059981004626549191960371842924359953030943870544434,0.1376783600674919283424202376409084536135196685791,-2.5431413283430521765637877251720055937767028808594,0.07342368775022808935482032666186569258570671081543,-1.8433198309934588632330587643082253634929656982422,-2.8043882315813002392701491771731525659561157226562,-2.0714711319245564524749170232098549604415893554688,-0.4894314543469338585346406489406945183873176574707,0.087183220433946523320045685068180318921804428100586,-0.24542212259708170996042042588669573888182640075684,0.175180606649110615080644492991268634796142578125,0.16146609307798828747415598172665340825915336608887,2.4227671056665891491377351485425606369972229003906,-0.0075960110876084792341789153624631580896675586700439,-0.72395250733993665726018207351444289088249206542969,3.212450166649457372614051564596593379974365234375,2.3372156065957194748250458360416814684867858886719,-2.2517558782988782439815622637979686260223388671875,0.028564113228873980881994398828283010516315698623657,-0.79322788544121669573883082193788141012191772460938,0.065969912298700764119452344402816379442811012268066,0.28846536992588739378717832551046740263700485229492,2.9010842914539649584071412391494959592819213867188,0.0885131530257634580038939020596444606781005859375,5.1278853473031391629888275929260998964309692382812,3.8181151640879353870161594386445358395576477050781,0.17481560455779435181433711932186270132660865783691,1.7334497216790287765775246953126043081283569335938,0.17309437252490150749295594323484692722558975219727,-0.36129570297361635056176965008489787578582763671875,0.39426060118613343030702367286721710115671157836914,0.062565153322027930449245047839212929829955101013184,0.91569653432668618453504905119189061224460601806641,0.11146592213189576714427175829769112169742584228516,0.64917586266031568342782520630862563848495483398438,-0.73826404880529028496027876826701685786247253417969,0.21671676181673132921545743556634988635778427124023,1.2281324198824710158817197225289419293403625488281,0.035800963671907028162966213358231470920145511627197,0.25627014822913318781161251536104828119277954101562,-0.090602357047696951974913304184156004339456558227539,0.048954032164307118013546471502195345237851142883301,0.63233330965019396430193410196807235479354858398438,-0.0030972081505874953302748231465102435322478413581848,0.86993274734201964104585158565896563231945037841797,5.4409813149978765167702476901467889547348022460938,5.2661333652682023043212211632635444402694702148438,-3.1612981038008673984052165906177833676338195800781,-4.1618643848410448171648567949887365102767944335938,-1.1145146470703786167888438285444863140583038330078,6.2168455618974851617508647905196994543075561523438,-4.0579165257580438463946848060004413127899169921875,-4.46143962285665196532136178575456142425537109375,2.3255171312873046396418885706225410103797912597656,0.98549592260436280621860305473092012107372283935547,1.3370388552347085564520057232584804296493530273438,-0.15042665530772533766246112918452126905322074890137,-4.226523337992627915582488640211522579193115234375,3.2350604759787113806623892742209136486053466796875,-3.5473617982055025699139605421805754303932189941406,1.3495025479738020912634510750649496912956237792969,0.92733299027756044274894975387724116444587707519531,-0.09435846899466834858394292950833914801478385925293,1.2716917374612095592567584390053525567054748535156,1.3714722246058057564255250326823443174362182617188,0.07658435254610740372527288855053484439849853515625,5.9257295546856081358555456972680985927581787109375,-0.79537214822718471651796789956279098987579345703125,-6.156453849851747150978553690947592258453369140625,1.0641886339227817348529470109497196972370147705078,0.918437167614204241772313253022730350494384765625,-0.47220777882876091569031018480018246918916702270508,-1.0102958203238965317893871542764827609062194824219,-5.5378339701235521630451330565847456455230712890625,2.1552347921690153675911005848320201039314270019531,-0.97771305166137689734995319668087176978588104248047,-1.5393759664415123111780303588602691888809204101562,0.32324408180436797755064048942585941404104232788086